306 10
的 0.0015833218 -0.005127991 0.05777776 0.09449503 -0.09462278 -0.07101987 0.07864519 0.09719083 -0.0621765 -0.04039629
， 0.07999187 -0.019976163 -0.039170053 0.07181077 -0.05027973 -0.017453922 0.041229967 0.017452592 -0.09304183 -0.09710901
。 0.07861245 0.046167795 0.07179948 0.011359397 0.061951283 -0.03318378 0.000492454 0.06340898 -0.0833787 -0.04206907
— -0.07122405 -0.013255856 0.10021169 -0.069700666 -0.023765841 -0.019432085 0.089523874 -0.05441348 -0.0061287186 -0.049074285
. -0.09215433 0.047192864 -0.08302112 -0.039986964 -0.001092326 -0.0021676223 -0.06739978 0.102397114 0.04324106 0.09105928
是 -0.07777115 0.041192573 -0.036782186 0.011958701 0.084401235 -0.04488895 0.053419158 -0.06354646 -0.042931896 0.09277903
了 -0.013194084 0.0005930055 -0.03858784 -0.07454456 -0.01530562 0.02454417 -0.0029083823 0.058554977 -0.031813726 0.021292884
和 0.060642708 0.078664444 -0.010000554 -0.086998336 0.0411614 0.005273982 0.08448267 -0.0032998356 -0.03484403 -0.08998246
用 -0.005629589 0.02475367 0.05786806 0.07345534 -0.057720333 0.018293874 0.067795634 -0.045247123 -0.03735204 0.06708069
在 0.021581218 -0.0030294096 0.039204042 0.0057976637 0.09462376 0.05115881 -0.08099614 -0.06577328 0.001646161 0.06249079
) -0.0830047 0.034080673 0.05488741 0.06052892 0.07310123 -0.062005956 0.017239053 0.064103834 -0.03351803 -0.063355796
( 0.00025733322 -0.087808065 -0.05113423 0.07460726 0.03194791 0.072264574 0.07627067 0.07958952 -0.043907277 -0.00664036
主要 0.027017824 -0.04754929 0.087847814 -0.09612216 0.06738303 0.029349854 -0.04235761 0.049022704 -0.0222861 0.06657929
上 0.10322288 -0.046412777 -0.0032709565 -0.054180045 0.037977666 0.02845833 0.07542231 0.064755194 0.09076816 0.09187177
用于 0.08378312 -0.073727995 -0.0875506 -0.0004188525 -0.032643303 0.07899784 0.0671881 -0.0118617155 0.008817433 0.015828442
真的 0.08086488 -0.09708643 0.0010858738 0.03671842 -0.009348175 0.08466467 0.09521935 0.068858914 -0.011271973 0.0766104
研发 -0.08347871 0.029717563 -0.044312652 -0.049372483 0.035040922 0.0535939 0.08250737 -0.055362113 0.07086119 0.065821335
也 -0.03336761 -0.090221986 0.057106897 0.067989185 -0.008295985 -0.06766988 -0.065151826 -0.021279192 0.046876915 -0.036930166
进行 -0.09101139 0.035768386 0.050459936 -0.062689744 0.010838423 -0.021129783 0.0044359495 -0.09720981 0.02369822 -0.04819392
来 0.01396019 -0.018666152 0.02490147 -0.076128624 -0.028246418 0.025785036 0.05969674 -0.020246344 -0.100818336 0.04285536
轨道 0.005051515 0.02715143 -0.06488132 -0.010419746 0.07526721 0.073601395 -0.029434899 0.031349227 -0.08965857 0.060918316
中国 -0.044486407 -0.03422698 0.09596097 0.011425517 0.07502758 -0.06038646 0.056969225 0.10267598 -0.08919586 -0.05171859
并 -0.06787345 -0.05110089 -0.03450855 -0.08317894 0.07900136 -0.04831117 0.091247186 0.056552116 -0.07116456 0.037763167
防空 0.056968044 -0.07707406 -0.07276826 -0.023395438 -0.08676819 -0.015433835 0.00023915604 0.035390984 0.01170261 -0.0094089825
造成 -0.054151442 0.01567689 -0.0071682003 0.0695628 0.039164834 0.045884512 0.018387608 -0.025352273 -0.04637396 -0.011267958
已经 0.01646119 -0.028557228 -0.069270164 -0.07670077 -0.09157643 -0.05888198 -0.013730805 -0.040638115 -0.06818182 -0.037497785
会 0.044708528 -0.04018521 0.08586421 0.017266195 -0.07321215 0.095018074 0.08101463 0.057879202 -0.072550826 0.05791676
目前 0.04333622 0.04898757 0.04480807 0.022210171 -0.03249042 0.08364978 0.1024556 0.04138565 -0.033409555 -0.0006332437
正在 0.015334826 -0.086723156 -0.08002078 0.0006142145 0.010702362 -0.057284534 -0.0414731 -0.06999928 0.07873168 0.00021160941
打击 -0.04255739 0.05443083 0.09430066 -0.03894126 0.078920476 0.053840388 0.06378429 0.00876714 0.077125646 -0.07133312
/ -0.07966391 0.091075376 0.0011770902 -0.016568564 0.044750635 -0.04055648 0.033512767 0.07318098 0.05606733 -0.076609775
一个 0.09596601 0.044152334 0.042216066 -0.05973681 0.08357448 -0.021486513 0.093325704 -0.051605284 -0.08562234 0.06667601
下 0.018662872 -0.02378211 0.09671088 0.09660531 -0.09826018 0.024775073 0.06583193 0.04132878 0.017308397 0.003702223
可能 0.009740737 -0.041499916 -0.06910081 -0.018888371 0.038217574 0.087774664 0.09887522 -0.056918003 -0.098663695 0.09711335
实现 0.0369084 0.04958642 0.065132774 -0.025550067 0.07219218 0.028031114 0.033112373 -0.021239001 -0.035219084 -0.02433219
美国 0.045838244 -0.0013663663 -0.09345894 -0.094218515 -0.062121972 -0.0011329083 0.025286261 0.09744985 0.05154473 -0.044421546
中 0.004700454 0.047613833 0.07914931 -0.009332824 0.0425952 -0.05831336 -0.0043338947 0.08373025 -0.027092267 -0.09690346
太空 0.061468977 -0.043023854 -0.008361998 0.10357007 -0.023674013 -0.04758778 -0.046774454 0.07414201 -0.0629785 0.020191945
国家 -0.050315287 0.058761757 0.04572728 0.028535929 -0.015450337 -0.028177114 0.095424786 0.055236716 -0.025503531 -0.09623281
没有 -0.07239935 -0.012653937 -0.006221955 -0.02408031 0.09641303 -0.0050014006 0.06265169 -0.07234181 -0.027887085 -0.056445654
巷战 -0.06896261 0.009238912 -0.070095 -0.020142384 0.036387827 0.058611758 0.018292852 0.024458813 -0.04552925 0.070955254
人工智能 -0.060701318 0.04457704 -0.079920374 0.02270956 -0.0501678 -0.041985996 -0.025537446 0.059932355 0.053736243 -0.050771784
不是 0.009888738 -0.08748477 0.08027476 0.09495311 -0.028176337 0.0076817945 0.012010211 0.05797815 -0.09010716 0.0048630796
无人机 0.07125979 0.020324577 0.0132352365 -0.09150748 0.0843281 -0.062358227 -0.024975518 0.037482295 -0.011335946 0.012568375
机器 0.020144055 -0.069612354 -0.09614421 0.09186994 0.061945163 -0.06893817 0.037914276 0.0045040525 0.045801703 -0.07246977
识别区 0.04389247 0.04081142 0.10176265 -0.04271876 -0.014378097 -0.07286342 -0.09156561 -0.088014826 -0.014144802 -0.06628102
很快 0.050189476 -0.06328194 0.026376642 0.0075561246 -0.034100164 -0.009737612 0.102659605 0.0921448 -0.046890087 0.09023377
将 -0.053619675 0.057338253 -0.02964779 0.03564717 0.029696086 0.06965007 -0.018982962 0.090742424 0.07240891 -0.0965912
障碍 -0.07827748 -0.07833154 0.03141742 -0.02586354 -0.06983113 -0.08102286 0.08804092 0.02239012 -0.09708241 -0.049388334
很大 0.03333506 -0.049623482 0.054572765 -0.04120055 0.025833458 -0.08008939 0.066321984 0.05012607 0.004622044 0.02943032
配合 -0.085355245 0.01898839 -0.006811552 -0.09163218 -0.0946394 -0.0139327375 0.04934578 0.038820375 -0.06851611 -0.069733694
武器 -0.048259236 -0.02487433 -0.07036769 -0.09439421 -0.02800616 -0.08338404 -0.05666055 -0.05498901 -0.026555797 -0.017692836
EMP -0.08741506 -0.009843979 0.08479341 0.079242416 -0.07255292 -0.036679506 0.03601502 -0.09298498 0.010909074 0.06522262
新一代 0.058733627 -0.08961831 -0.04338379 -0.08010077 0.00019161036 0.09237333 0.06290872 0.052335802 0.04778984 -0.032503374
这是 0.0992353 -0.07674036 -0.069594495 -0.01942079 -0.009114748 -0.03291244 0.0006212465 0.07858435 -0.012426895 -0.017806001
海军 0.03020951 -0.08632412 0.08135452 0.08868041 -0.09747968 0.024422457 0.10472657 -0.07238906 -0.07441882 -0.07835381
可以 0.086062014 -0.008485228 0.093107045 -0.08075272 0.036674757 0.026934324 0.011053269 0.025120534 -0.07799628 -0.09462271
空空导弹 0.02518785 0.05991808 0.08191729 0.05856112 -0.00809808 0.08324545 -0.09007425 0.03609614 0.00012100202 0.038259827
能 0.075906 -0.06905139 0.0577641 -0.09375553 -0.008483536 -0.08662742 -0.047272913 0.09462826 -0.0216992 0.0285042
名义 0.092575744 0.086834 -0.080166295 -0.02846015 0.09838143 0.051735867 -0.010828925 -0.085214905 0.025496645 -0.06795077
防御 0.08432612 -0.04724733 -0.007969058 0.011667113 -0.0030288163 0.011379519 0.06604306 0.0018864583 -0.036502227 -0.016908905
小行星 0.060829684 0.012999632 -0.0046797786 0.09565161 -0.05016514 -0.008250572 0.09598248 0.06964254 0.0112745045 -0.090244606
平台 0.014202643 -0.024912376 0.09634925 0.01390379 0.014382267 0.024429653 -0.0145358695 -0.04816934 -0.0014303166 -0.0216176
多次 0.06857815 0.08688511 -0.004549961 0.03228075 -0.06197534 0.01761343 -0.06489964 -0.08410786 -0.063271716 -0.09117755
作为 0.07483155 -0.06029491 0.08487059 -0.07043732 0.033423297 0.096313104 -0.07369164 -0.096927285 -0.047671054 -0.028206775
大 -0.00033814047 -0.090639 -0.083856516 0.030277276 -0.08305776 -0.09108593 -0.01831357 -0.08380314 -0.07483818 -0.08491875
但 -0.0012733038 -0.047198895 0.0680584 0.01680573 -0.03440009 0.060984556 -0.05750385 -0.04434043 -0.07490904 -0.043711193
还 -0.015629414 0.06295636 -0.02514908 0.051410757 0.06812517 -0.074907 0.050563857 0.06365033 -0.03311478 0.06515884
循环 0.06305364 -0.06632345 -0.065466076 0.027637992 -0.017096804 -0.061323367 0.09937406 -0.04941001 -0.06978759 -0.0019751329
巨大 -0.025012499 0.0023379559 -0.033312287 -0.0018481949 -0.007877037 0.008301928 0.08611353 -0.055207353 -0.020667667 0.054548234
其实 0.08465408 -0.04654668 0.09235757 0.085274525 -0.04469917 0.0022491275 0.047476955 -0.035948135 -0.059837207 -0.06608691
都 -0.0046740477 -0.0053391834 0.047005054 -0.022863284 -0.0024783132 0.024697956 0.05353199 0.0022116422 -0.067437984 -0.093699165
看 0.0010183883 0.066362955 0.015471887 -0.0890473 -0.07949721 0.06574925 -0.036268666 0.06385986 -0.06828407 0.08427372
慢慢 -0.06429911 0.031993177 -0.009607037 -0.06740569 -0.033069994 -0.011284988 -0.053030744 -0.011549366 -0.077284954 0.025914429
印证 0.09228364 -0.02471264 -0.008315086 0.03662795 0.08636679 -0.058313906 -0.06621033 -0.027915927 0.08946848 0.008055364
不会 -0.085332274 -0.016259748 0.09632266 -0.07477353 -0.054149985 0.09384446 -0.08678223 0.039865073 0.004007035 0.0657809
内容 0.08506141 -0.03009308 -0.038116086 0.09050457 0.02050918 0.06304928 -0.09129799 0.09751759 -0.015941942 -0.061646402
以上 0.03117358 -0.006047108 0.049083073 -0.0215696 -0.041975345 0.022910465 0.08667779 -0.048860084 0.024139114 -0.08094803
恶趣味 -0.06667472 -0.0055841026 -0.08615513 0.02906808 0.01563998 -0.02296045 0.052708045 0.0988677 0.08202104 -0.019861596
倔强 0.022714201 -0.0411949 -0.08023119 0.06412438 -0.020013018 -0.0063489997 -0.013884163 -0.04326079 0.037259266 -0.044089638
湖北佬 -0.093940414 0.088353455 0.043265183 0.09387136 0.06589096 0.02937401 0.10206406 -0.042432874 -0.07079706 0.041026384
来自 0.038751468 -0.05799012 0.0988879 -0.03377535 0.09505583 0.008522319 -0.06035651 -0.018606612 -0.076316796 -0.031015052
软珍 0.011521918 0.093370125 0.09473591 -0.064015105 0.03467749 0.023032138 -0.022617117 -0.091126814 0.008132858 -0.08246153
华子 0.06381763 -0.05925815 0.056698397 0.099734 -0.0017472054 0.045279574 -0.016117783 0.07446316 0.037412304 -0.09046633
外星人 -0.02287633 0.034797434 0.0005755039 -0.010668967 -0.011003378 -0.01724951 0.008473794 0.042642716 -0.04484792 -0.03889647
烟头烫 0.0004218183 0.0017177536 -0.0005128373 -0.047079764 0.04304087 -0.022355134 0.023404755 0.0076322225 0.057858787 -0.06868295
背面 -0.066918686 -0.04603577 0.09645083 -0.014597658 -0.09458519 -0.0053906757 -0.042072013 0.061149478 -0.097966574 0.028261367
月球 -0.09172693 0.011523718 0.061507054 0.074678615 -0.076175995 -0.060997523 -0.0664532 -0.07846212 -0.09645029 -0.021513373
11 -0.0071980907 -0.07401548 0.06957528 0.012366787 0.057589244 0.015169884 0.010816741 -0.07200852 -0.02489388 0.042344365
机会 -0.049731538 0.009459891 0.030246548 -0.014289396 0.09879229 0.083285354 0.027317557 0.07337577 0.055529952 -0.056370266
给 -0.04968807 -0.068343066 -0.076501384 0.0845066 -0.020555481 -0.06883447 -0.03862945 0.052833445 -0.031452022 -0.03780321
一直 0.018136248 -0.029575994 -0.014278347 0.012392216 -0.030489702 0.08469724 0.04266308 -0.09768402 0.060275394 -0.06783253
日本 0.009363821 0.043187708 -0.049317665 -0.0197997 0.08099022 -0.04271624 -0.07316978 0.094771154 -0.023581544 -0.04745343
针对 0.08779565 0.042232983 0.045010146 0.09453869 -0.085021585 0.052229896 0.024053553 0.04402017 0.014361801 0.043699615
即使 0.046658367 0.060223274 -0.030691098 -0.04424134 -0.0045302757 0.024988594 -0.02987311 0.06251792 0.039489355 0.07701853
战争 0.027390825 0.08077911 -0.012359758 0.082084574 0.037207067 -0.0806001 -0.0367103 -0.02335177 0.047430344 -0.009573933
式 -0.026098242 0.0768359 0.09485814 -0.0147776585 -0.051883243 -0.0473571 -0.045187768 -0.09453645 0.011671057 -0.043377057
种族灭绝 0.026408177 0.054358542 -0.039744936 -0.094887 0.014334674 -0.06713966 0.027683957 -0.03634074 0.06872241 0.0061365333
一次 0.037462477 -0.029086761 -0.015366136 0.07800141 0.013619721 -0.058635246 -0.075186394 0.01412425 0.06179879 0.054317042
钉子 -0.08860377 0.084394775 0.042170353 0.07612778 0.096847184 -0.07324572 -0.087876 0.059930097 0.091201715 0.03405359
找 0.07166387 -0.016737973 0.08101087 -0.09383925 -0.08062006 -0.06672524 -0.037660968 0.05161001 -0.04016082 -0.08410092
下定决心 0.085233904 -0.038481254 0.08766142 -0.04752437 0.038647406 0.048947554 0.027231282 -0.026386764 0.026385559 -0.08298679
情况 -0.026559312 -0.026769487 0.07366025 -0.03324075 -0.06650271 0.043339286 -0.0019078865 -0.034474067 0.06656325 0.03854757
铁锤 -0.038038466 0.0067681707 0.09270585 0.07860897 0.06370016 0.0470654 0.026812108 -0.016875468 -0.065801546 -0.003582101
手握 -0.013708494 -0.007171216 -0.060994025 0.075953335 -0.066405974 -0.0725159 -0.024542872 -0.0136084035 -0.0791702 0.0065104556
心太善 -0.051981788 -0.013705452 -0.07221869 0.021236856 0.032406263 -0.00014709623 -0.051904373 -0.015858067 0.06906618 0.03716075
中国政府 -0.08772669 -0.03525048 0.025079843 0.022798458 -0.095061034 0.045754693 -0.084359705 -0.07258781 0.032730516 -0.035238445
或者说 0.037094742 0.087922394 -0.034455907 0.0948748 0.016521938 0.09869003 0.059944764 -0.09002904 -0.035380926 0.06499719
心理准备 0.057264745 0.0858866 0.0707257 0.08190096 -0.09866409 0.042759065 -0.047471512 0.037039522 0.058099717 0.043090183
依赖 0.07655139 0.013335753 -0.011336637 0.058654882 -0.056613397 0.0003110061 0.09798916 -0.052929666 0.03517193 -0.081639506
做好 0.09967669 0.080260746 0.014516149 0.05230004 0.013977733 -0.064800896 -0.010728935 0.06706006 -0.048604913 -0.040760357
完全 0.050452102 0.025869273 -0.017280452 -0.027507573 0.060322866 -0.057329476 -0.029283205 -0.06291825 -0.04446955 -0.08637772
面 -0.043353796 -0.08677033 0.015411546 -0.08523973 -0.09961695 -0.082269944 -0.064645246 0.068384655 0.03580076 0.0032944262
社会 -0.027861804 -0.0757734 0.0070081605 0.006255766 0.001963724 0.00839571 0.011246199 0.001368795 -0.0824449 -0.059904724
哪个 -0.08214111 -0.014594034 0.019723423 0.075318746 -0.019903325 -0.02370109 0.097911924 0.0026349793 -0.025804417 0.08529395
全世界 0.028627211 -0.054872982 0.06767432 0.046955626 -0.07135923 -0.003347611 0.011874553 0.059637345 -0.019598255 -0.028973458
舆论压力 0.01869396 0.0076341433 0.013382181 -0.025158126 -0.06051105 0.0735606 0.07908944 0.08500499 -0.08882438 0.025413398
压力 -0.0345543 0.09524728 0.030507384 0.047920983 0.023264827 0.06639909 -0.054119416 0.08074536 -0.026731988 -0.04637794
政治 -0.018928364 0.095853165 -0.066884704 -0.020262219 0.069479436 -0.00018366611 -0.05902243 -0.061773412 0.08648334 0.06385098
极大 0.048788324 -0.033856902 -0.09132548 0.039213877 0.07130609 -0.055922236 -0.07540702 -0.027899418 -0.0519709 -0.023884876
从而 -0.018748824 -0.053643655 0.095861465 -0.0923053 0.04483671 0.054161 -0.0119801415 0.09125584 0.097198546 -0.054722108
杀伤 -0.058752745 -0.068953715 -0.07706798 -0.029152015 -0.056456283 -0.08378432 0.0106898965 0.030913796 0.061918803 -0.026753996
附带 -0.042886686 0.010855376 0.0059064287 0.082349785 0.0016474958 0.07233406 -0.07982998 0.08592889 -0.02142409 0.08616752
叫 -0.07450825 0.016483176 0.012221376 0.0016766551 -0.051957086 -0.092762075 -0.069565564 -0.078303166 0.016493749 0.0037361856
说法 -0.016186465 0.069265656 -0.02317319 -0.012411996 -0.08989328 -0.099702045 0.09275808 -0.055910908 -0.06628411 0.05179602
人 0.06849714 -0.070145 0.011598439 -0.058623753 0.01576916 -0.042925637 -0.031104537 0.022999821 0.08361361 0.066252925
伤亡 -0.09478118 -0.058443163 0.080742486 0.021497773 -0.04372773 0.0062780897 0.099511825 -0.009212773 -0.09762736 0.015433236
平民 0.06415136 0.06110466 0.042003296 -0.055365942 -0.004253751 -0.0006537583 0.049121246 -0.079029344 -0.082588546 0.0017473872
狗 -0.08468084 0.057208188 -0.0027367112 0.10078737 -0.053707235 -0.0044336678 0.080116056 -0.039871667 -0.052024458 0.0151087325
大量 0.028490262 -0.027027477 0.06556851 -0.07567672 0.034121335 0.005387256 0.08979114 0.06127734 0.06680238 0.07753891
伦理 -0.09362618 0.09438735 -0.07693088 -0.025428398 -0.049058724 -0.04969133 -0.07853169 -0.07701933 -0.046853077 -0.013185123
而是 -0.05005046 0.059816804 -0.09389483 -0.052031558 0.094263725 0.070314124 0.07935107 0.043793175 0.003066181 -0.060012296
技术 0.061587375 0.0249229 0.07801728 0.06515578 0.07936528 0.086612664 -0.09637794 -0.06620554 0.01155531 0.06371238
海 0.07526518 0.054580092 0.07779842 -0.050228238 0.06543008 -0.041082423 -0.088226035 0.09304962 0.011794856 -0.028643303
狗海 -0.022897175 -0.043029387 0.04912035 0.045370206 -0.026986888 -0.07325961 -0.032284938 -0.0013513765 0.059195362 -0.029190825
10 0.0005826109 0.0076225707 -0.070027046 0.021822752 -0.014685321 0.028208414 0.051208448 -0.011986109 -0.029667195 0.07663261
拓展 0.05179289 0.06629052 0.04594376 0.08809917 0.07452968 -0.0107058035 0.09000737 0.04732966 0.052944977 -0.014299531
向外 -0.0189239 -0.04529396 -0.08427822 0.03130956 0.08876867 0.08941756 -0.01673136 0.06221372 0.036120147 -0.04351472
大幅 0.02207641 -0.055235114 0.08250022 0.055523455 0.0315137 0.04107864 0.08920216 0.07369664 -0.009788096 -0.071368
实际上 0.084847935 0.071649596 0.018230205 -0.013084416 -0.05914495 -0.045107726 0.08901551 -0.0297185 -0.06493057 0.09841306
摆设 0.07887403 0.089781284 0.012756748 -0.08185219 0.08388283 -0.03714732 0.060178734 0.045798574 0.09515388 -0.09367672
个 0.09374631 -0.09418115 -0.067754805 -0.08994953 -0.05596818 0.073711246 0.09485302 -0.031019127 0.035390314 -0.036789585
就是 0.079866864 0.058055192 0.000988712 -0.035630543 -0.072493374 0.04805325 0.01689789 -0.024538996 0.077067494 -0.040557217
进展 -0.09104175 -0.023881083 0.0018936676 -0.06602782 -0.055193733 -0.08493975 0.094021305 0.074920036 -0.0044011297 0.07361869
弹道导弹 0.08082631 -0.0086962255 0.0673284 0.03787123 0.050694518 0.07255397 -0.04490836 -0.020876644 0.006864533 0.041904397
9 0.03425919 0.049892534 0.046999943 -0.083118945 -0.032151073 -0.07230687 0.0993503 0.051417917 -0.000114584254 0.04054448
拨付 -0.0750074 -0.06496394 0.032081597 0.066512145 0.03901483 0.060671505 -0.01696158 -0.03167563 -0.0004190493 -0.03226507
经费 -0.053253822 -0.0802481 0.06769437 -0.009388824 -0.019346967 -0.07779367 0.09668887 0.010172749 0.014770974 0.02427484
对 -0.0727216 0.014568967 0.031009518 -0.0842596 0.049170516 0.024775371 0.07811173 0.052473076 -0.032746162 -0.07222682
起不来 0.072218515 0.017637432 0.053571075 0.0648995 0.018840553 -0.061388142 0.0024019817 0.08387785 -0.06335603 0.09417829
产能 -0.07078394 0.04040721 0.02284446 0.07602703 -0.049898885 -0.04540446 -0.05798588 0.034798812 -0.047595713 0.08475478
维修 -0.041954428 -0.091750674 -0.04685784 0.0651969 -0.06409357 -0.05208836 -0.07082627 0.061792575 0.03179832 0.028222855
建造 -0.029727353 0.058739025 -0.060137942 -0.018199297 -0.060630966 -0.009304033 -0.016789868 0.08713338 -0.0018926166 -0.08622863
潜艇 -0.053142373 -0.06965277 0.028047057 0.095767334 -0.05857048 0.08331976 0.08739306 -0.06927263 -0.090056874 0.09429513
对手 0.08534794 -0.048092756 -0.065419644 0.07971086 0.037314747 0.081995815 -0.07227081 -0.09331877 0.013335635 -0.098653145
尴尬 -0.04765431 -0.03535922 0.09729645 0.087489545 -0.028431004 0.0591112 0.08456727 -0.021814948 0.09388568 0.07119009
一点点 0.021556322 -0.039839223 -0.049528755 -0.029552765 0.07852301 -0.06186208 -0.026823405 0.09334986 0.033053413 0.060461372
有 -0.079292685 -0.007896549 0.05631376 -0.04592564 0.07455276 0.09362456 -0.002512719 -0.019266821 -0.007012233 -0.058249082
鱼雷 -0.08277693 -0.01639516 -0.024380628 0.04520495 -0.06914759 0.054199032 -0.065578595 -0.07611692 0.082948826 0.08894002
空泡 -0.033398136 0.032995332 -0.056702815 -0.08627186 -0.05621759 0.06738673 0.06635309 0.09606453 0.068506606 0.06696543
超 0.014892888 -0.10013854 0.04740337 -0.0037357484 0.06252986 0.018318834 -0.027870696 0.07949848 0.013073828 1.9537747e-05
远程 -0.045172792 -0.08573422 -0.07636713 0.0880399 -0.09007139 0.091031455 -0.09013427 -0.0012302139 -0.021269172 -0.09031945
8 0.08737208 0.06602512 0.031860653 0.049617022 0.00010374733 0.094683744 0.073328316 -0.09710176 -0.047046848 -0.013321595
美方 0.032053255 -0.04481492 0.015785264 -0.07775697 0.027478388 0.047467586 0.052101176 -0.031004766 -0.08661348 -0.092842914
感谢 -0.0055656116 -0.074846506 -0.06696174 0.062390734 0.07120096 0.021831103 -0.07669417 -0.056406282 0.07878113 0.03897394
搞 -0.050747573 -0.075519554 0.008961546 0.035971597 0.020009752 0.03129828 -0.05369681 -0.09801086 -0.07187864 0.0022286829
非核 0.04714176 0.04467581 0.019934487 0.05246218 -0.0009376342 0.040950064 -0.08963525 0.078645974 0.060225166 0.051332723
完成 0.07254015 0.08362357 0.008396835 -0.016375693 0.0047298186 -0.09348695 0.086105265 -0.06263009 0.082778014 -0.04262233
工作 0.0074577746 -0.092824474 -0.09459258 -0.077352054 -0.077905424 0.0036535212 -0.06983629 -0.047857206 -0.054320186 -0.04308
预研 0.07131538 0.04671025 0.08826357 0.072008885 -0.05746279 0.072714664 -0.09074716 -0.0247282 -0.07965561 0.04206184
核 0.019286575 0.069156915 0.031178124 -0.06879484 0.07719621 -0.059796546 0.09240636 0.031214774 -0.041996583 -0.046772506
可 -0.042789467 -0.06276982 0.09506741 -0.025828248 0.07795946 -0.09654002 0.023258038 -0.010699015 0.07373588 -0.090673774
核试验 0.07644599 -0.051807992 -0.058939133 -0.05522976 -0.033792596 -0.03387785 -0.0286409 -0.07256236 0.0054366286 -0.006321073
重启 -0.015125553 0.03679357 -0.07498707 -0.031001596 0.051521473 0.08565695 -0.09418672 0.07473714 0.050738536 -0.039561555
宣布 0.08804511 -0.09332718 0.07374507 0.055412013 0.012566865 -0.051813416 -0.038189907 -0.031360336 0.013763988 0.015088935
最近 0.07522439 0.09945102 0.08975193 -0.038773093 0.09631441 -0.006019711 0.051556487 0.027388712 -0.008269495 0.03611897
7 -0.05218717 -0.05807989 -0.075443365 0.019859489 0.06469205 0.008884593 0.015208008 0.03302097 0.07939627 -0.0777018
不少 0.02341656 -0.07546868 0.037865434 0.095780805 0.07542723 0.06430894 0.08215149 0.06620152 0.06719474 0.08661338
秃 -0.04815633 0.09102885 0.05175249 -0.020439377 0.08465922 0.05062652 0.099238575 0.029918104 0.09659234 0.011270704
头 0.092596516 0.034947403 0.06646377 -0.03529541 0.06794038 0.07269623 -0.019020466 -0.017193714 0.03482502 -0.070797585
院士 0.09872025 -0.09924317 -0.06392758 0.028758498 0.0641328 -0.053887293 0.030291323 0.092867635 -0.06998714 -0.06144363
某 -0.04824797 -0.038078226 0.019791802 0.09862602 0.06416843 0.0045515047 0.028041832 0.08675403 0.088990144 0.055908754
据说 0.061593145 -0.07764743 -0.03717619 -0.056108065 0.061623327 -0.022649053 -0.08504565 0.078150705 0.08192728 -0.033814475
推倒重来 0.09264397 -0.008390071 -0.035445053 -0.0027119392 0.0015281476 -0.034603845 0.030964503 0.059354328 0.06655993 -0.08965338
状态 -0.020280834 -0.056016654 0.07653282 0.06653339 -0.04427296 0.023518365 -0.05662897 0.0040218453 0.09264818 -0.026943684
归零 -0.050310288 -0.07558654 -0.027916517 -0.007110337 0.034529436 0.09796601 -0.031403 0.020917311 0.09458604 0.014633143
反复 0.011547119 0.09685184 0.09443923 0.07895763 -0.062168427 0.10016084 0.06153306 0.092597805 -0.022069097 0.03289573
处于 0.06991306 -0.040240955 0.06824438 0.027702764 0.09263997 -0.029988388 -0.027965998 0.063807815 -0.09348276 -0.072945006
一样 -0.06324017 -0.0090535525 -0.021983864 0.07021229 0.09162085 -0.008946523 0.017606445 0.022219209 -0.022917494 -0.08100506
20 0.07639779 -0.04418846 0.047790445 0.09317306 0.029916855 0.03194055 0.04449716 -0.025167936 0.035206955 0.0028546196
轰 0.058376223 0.05372353 0.020139268 0.059643432 -0.09075991 0.066072464 0.09600255 -0.040119898 0.012606821 -0.053280216
提高 0.011796094 0.02701515 0.08251522 0.0065958253 0.025316989 0.013163137 0.08596469 -0.056143895 -0.06480806 -0.0366378
有待 -0.02103398 0.04945761 -0.08010184 -0.026827056 -0.08264946 0.052093916 -0.022807766 -0.08909085 0.038157366 0.08953151
仍然 -0.028745046 -0.06005851 0.030972423 -0.0033612086 -0.10035952 0.08495717 -0.07092714 -0.047971923 -0.029172879 -0.055320896
意义 0.018833049 0.09588443 0.046859037 0.08227328 -0.0047595934 0.0069861906 -0.024393216 -0.08635188 0.03199805 0.020456778
实战 -0.09222992 -0.05119876 -0.09613282 -0.05616531 0.040368553 0.08698325 0.044086304 0.025323315 0.07928333 -0.011891266
炮 -0.012134319 -0.08923871 6.9745474e-05 -0.02466476 0.003557185 0.07336141 -0.067295276 -0.037213318 -0.06917929 -0.035792902
6 -0.030898705 0.018985664 0.035560265 -0.047840454 -0.046137646 0.01163079 0.058157787 0.05603958 -0.032640636 -0.042954322
抵触 -0.054551255 -0.0069154566 0.02126275 0.01711363 0.07301858 -0.027767388 0.00290815 -0.053128153 -0.014494787 -0.07755596
较为 -0.008082284 0.011698004 -0.08441681 0.0893588 -0.092726916 -0.09645541 -0.08219928 0.074797206 0.052365817 0.09217349
尽管 0.027441878 0.00719988 -0.023664806 0.09537497 0.02715959 0.041096415 -0.007862865 0.010829314 0.063160025 -0.008180653
妥协 0.03472472 -0.008057146 0.05355296 0.03743447 0.025241144 -0.053096447 -0.04414078 0.04461656 -0.06150213 -0.002320765
龟背 -0.005086595 0.033626538 -0.08347288 0.0890939 -0.015211981 -0.053158246 0.043965835 -0.017787691 -0.08036932 -0.045272976
很 -0.0021694715 -0.09112548 0.0069265594 0.025953382 -0.03308502 0.026102545 0.02841957 0.1013605 0.0115189105 0.019670911
矛盾 0.029542096 -0.022187928 -0.08569733 0.081857644 -0.02040851 -0.09683627 -0.06254248 -0.037722286 0.036769815 0.049961384
重心 0.06224348 -0.06861269 0.008082358 -0.026675891 -0.05217793 0.070220515 0.041885935 -0.029868739 -0.085000694 -0.051789157
船高 -0.004055225 0.0765077 0.063042164 -0.082309 -0.0964438 0.071711645 -0.018739875 -0.033875663 0.053666577 -0.05946604
弹长 0.052471202 -0.0032539032 -0.06735812 -0.0017151536 0.06333937 0.09321745 0.025147798 0.052411743 -0.052100733 -0.008660089
巡洋舰 -0.05168968 0.011044303 -0.01612677 -0.035136245 -0.07066023 0.096895464 0.032794274 -0.020827426 -0.044476874 0.07627147
驱逐舰 -0.06412461 0.029968306 0.00899722 0.08406119 0.068006404 -0.029288437 0.027724884 -0.015182597 -0.09641151 -0.026187118
新 0.01537167 0.06443692 0.10143281 0.09249206 -0.08079248 0.06501993 -0.05334617 -0.007682689 0.0019667244 0.065269746
更 0.046119023 0.04511475 0.09605588 0.0049842903 -0.06070142 -0.06323815 0.06686507 -0.051346958 -0.030203156 0.040339857
相配套 -0.021254215 -0.061290137 -0.021686474 0.013081652 0.020992698 0.06071744 -0.04944777 0.031873465 0.06998817 0.021554496
及其 0.05555121 -0.049579635 0.0625891 -0.07470232 0.03441034 -0.09383643 -0.022715695 -0.08897318 -0.017763082 -0.053649392
反舰导弹 -0.03807868 0.010013801 0.029437082 -0.01466112 -0.08270511 -0.05939939 0.0118276095 -0.03795052 -0.0971673 -0.0078066913
41 0.067324005 0.058551203 -0.09843135 0.03215817 -0.06027838 -0.092241704 0.0040122326 -0.0025409542 -0.071248785 -0.06299798
东风 -0.023094377 0.069769144 -0.07456749 0.07784935 -0.0053253574 0.0108023 0.09774404 0.048957985 -0.037861794 0.037168134
基于 0.036122017 0.062020034 0.0019748483 -0.04298101 0.012465952 -0.05409302 0.017210128 0.050912607 0.04907975 0.09150117
5 -0.07422781 -0.054579113 0.06566582 0.01465221 -0.066697985 0.00888801 0.02956096 -0.023299942 -0.051914174 0.049675282
发动机 0.09722923 -0.07458413 0.00013469667 -0.024429705 -0.06401881 -0.013709822 -0.049862996 0.09256158 -0.060150336 0.0367934
瓶颈 -0.0010143612 0.040937185 0.022759909 0.1012428 0.0057547335 -0.054769292 -0.009376099 0.022139821 -0.035862777 -0.07896903
镁 -0.054764546 -0.06859565 0.06511708 0.04068578 0.08157358 0.06562638 -0.05859677 0.028687663 0.08246806 0.015609073
氢化 0.032613393 0.057149235 -0.08691307 0.09257321 0.06773494 0.08506867 -0.07940948 0.06351208 0.06418541 -0.01422659
二 -0.0622103 0.05248249 -0.067554034 -0.05216929 0.034773946 0.08105333 0.08912681 -0.042733356 -0.09376895 0.09605874
燃料 0.0644178 -0.04047524 -0.083583616 -0.045564756 -0.040259764 -0.032738242 0.01044291 -0.0012896414 -0.032856293 -0.06023035
产品 0.09502567 -0.04822823 -0.0715702 0.07769723 0.02473758 0.086168185 -0.043073565 -0.06812604 0.008153677 -0.012203636
下一代 -0.09243737 -0.017423466 0.03194246 0.066940784 0.06781693 0.0321588 -0.042286202 -0.01654539 -0.041133266 0.057437472
那个 -0.06258059 0.020024167 -0.012318731 -0.05706323 -0.07319916 0.05888539 -0.081622005 -0.00571172 0.02639025 0.07742355
上面 -0.07190845 0.032310504 0.09961446 -0.068721786 -0.03536718 0.051511813 0.054955516 0.017777314 0.07797839 0.0082379775
4 0.019886585 -0.01684652 -0.0800059 0.03374775 0.019109733 -0.086697735 -0.0038377708 0.0026133624 -0.0019879069 0.08712072
飞豹 -0.02427309 -0.06036417 0.07651814 -0.07115401 -0.09031904 -0.0177598 -0.08143217 0.0053505893 0.017317407 -0.025122136
歼轰七 -0.06287673 -0.0041887057 -0.009410088 0.036023162 0.08047296 0.058605205 0.087355696 -0.088029124 0.0921332 -0.02442633
甚至 0.088338606 0.022837987 0.03759265 -0.094378665 -0.09562247 0.09033398 -0.02581217 0.03022221 0.061996687 -0.0032530485
J16 0.09846199 -0.011221106 -0.095286176 -0.06959535 -0.010950923 -0.086646736 0.07656481 0.037665647 -0.08950232 0.084593065
J36 0.090844266 0.057535864 0.070861585 -0.09473257 0.0044094943 -0.091969304 -0.03399932 0.0041936315 -0.005116093 0.013951581
挂到 0.034648225 0.02012198 0.054635514 0.076883234 -0.05955534 0.08009125 0.06365036 0.10018993 0.04365908 -0.033923108
电线杆 -0.036457364 -0.007233728 -0.015015344 0.10020072 0.010868783 0.04041113 0.03680074 -0.086495936 0.064955354 0.08144796
这种 -0.015119153 0.021926532 -0.06342718 -0.05991066 0.081771344 -0.030093674 0.07047215 0.017373864 -0.02217805 0.029732138
公里 -0.03892445 -0.018964166 0.0145683875 0.049610376 -0.014438022 0.006166821 -0.07717673 0.09571107 -0.08912896 0.070235394
1000 0.03999936 -0.071318865 -0.052118067 -0.078665435 -0.05197674 0.07037027 0.09919756 0.023051716 0.004327711 0.09466645
超过 -0.048049618 -0.013929379 0.034054507 -0.06289716 -0.097717136 -0.09296291 0.093485735 0.055407483 -0.050485827 -0.084050685
射程 0.013956641 0.02765534 -0.011755508 0.014086384 -0.043790072 0.04776981 0.017263854 0.089782104 -0.10158648 -0.0531413
3 -0.09019289 -0.0039746813 -0.07786935 0.051252574 -0.064489715 -0.05982629 0.05302741 -0.08061341 0.012890726 -0.07334589
核威慑 0.09981514 0.085655354 0.01910924 0.059252102 0.04595919 -0.059842207 0.099596545 -0.09605062 0.07878772 0.02674011
全球 -0.02910015 -0.036647286 0.09212342 -0.053375468 0.081825614 -0.060317814 0.08645506 -0.0038446242 0.07740762 -0.032303076
全天候 0.061368838 0.08705898 0.026677646 0.014361308 0.05023389 0.07976708 0.08779511 0.085793376 0.068737425 0.07914952
既 0.08711929 -0.001500795 -0.008769057 0.017487504 -0.0002678876 0.006976577 -0.08398791 -0.0951514 -0.0251625 0.08859834
部署 -0.035364427 -0.07085213 0.049799696 0.011509589 0.01861297 0.03637752 0.03772713 0.058352374 0.010180816 0.007636377
系统 0.09154519 0.027013911 -0.045772765 0.066534646 0.05199591 0.028510028 -0.029225992 0.034481898 0.061792243 0.069951706
以 0.010755884 -0.08688491 0.0038081498 0.004786789 0.039142348 -0.095118076 0.099595 -0.06817253 0.055548575 -0.09537315
预计 0.09842936 0.07158576 0.014212058 -0.03265481 -0.0049833213 0.0041447957 -0.060749568 0.059248026 0.021122962 0.036597587
核弹头 -0.070793554 0.083538644 0.0066944966 -0.00052893214 -0.091272846 0.040314216 0.070452854 0.07539982 -0.066587165 -0.07914739
补充 -0.054322273 -0.0072681615 -0.08214761 -0.08129388 -0.019551024 0.01167375 -0.092654124 -0.035981655 0.004353177 0.06767427
运载火箭 0.018333388 -0.007258278 -0.07378689 -0.0663474 -0.0071022934 0.075094126 0.057131305 -0.013287911 0.009271287 -0.09635415
依靠 -0.0127177825 -0.047522247 0.05912406 -0.022553923 -0.047864057 -0.09504649 -0.010205311 -0.07080967 -0.01896677 -0.041238677
卫星 -0.022314465 -0.034284685 -0.079795845 -0.01079125 0.016264949 -0.04076065 -0.07334879 -0.033756137 -0.09427681 -0.008302704
体积 0.06039509 -0.031289145 0.033479303 0.05194488 0.08415452 0.056041356 0.09845951 -0.094558105 -0.08304063 -0.06863473
区别 -0.07426348 -0.080958255 -0.07709543 -0.028870279 0.013585927 -0.029372046 -0.08651787 0.05113423 0.0076839346 0.046253536
有点 0.07360797 0.075804844 -0.0065896953 0.038153756 -0.051767178 0.018554153 0.048135582 0.100681424 -0.033730607 0.028100207
方案 -0.056316223 -0.022786342 0.08226274 -0.038700253 -0.012292529 -0.09305359 -0.093096785 0.09042564 -0.058664493 0.05048684
星球大战 -0.068512276 -0.025426766 -0.078833036 0.07647633 0.060577214 0.052528 0.08680445 -0.004642323 -0.09553001 0.090750016
2 -0.04876808 0.07809111 0.056224495 -0.009901307 -0.07704393 -0.014324616 0.064376034 -0.0681513 0.012838553 -0.07987096
平衡 0.0881071 -0.029311595 0.09549842 -0.056109272 -0.09781568 -0.08626285 -0.038862195 0.04859428 -0.0042155697 0.09169103
电解质 0.032376096 0.036303993 0.031262457 0.08280543 -0.024753774 0.07376745 -0.093588434 0.030367883 -0.008856717 0.004285424
环境 0.07008423 -0.030216824 -0.022425726 0.00026599836 -0.005719292 -0.0361701 0.065060705 -0.06434705 0.0763358 -0.0013642908
则 0.027592663 0.030695131 -0.0014423118 0.018245444 -0.032140896 0.047357444 0.0051204665 -0.03135631 -0.08975764 -0.10044482
目标 0.0047548157 -0.059083506 -0.0099544665 -0.04094318 -0.086972624 0.010106405 0.06199501 -0.020673666 -0.07381505 0.03130537
而 -0.003306508 -0.056343738 -0.010406437 -0.005119166 -0.032406665 -0.100131646 0.0787478 0.038506147 -0.02705358 0.07281576
成为 0.00571677 0.07068352 -0.0148896165 0.076232 -0.0009369136 -0.061043587 -0.04494337 0.097914696 0.0044430443 0.010125031
碳循环 0.085920386 -0.064637855 -0.016405283 -0.07995806 -0.06728574 -0.086223364 0.042040616 0.029066714 0.05409767 0.025810517
后 0.022798676 0.055865042 -0.01988446 0.033178955 0.08399578 0.0035674998 0.06493821 -0.065688565 0.06403906 0.04676167
水循环 0.05287225 -0.10113963 -0.0030838882 0.033638056 -0.05895073 -0.06717825 0.06675291 -0.06642366 -0.054432657 0.08118453
继 -0.06882965 0.08395551 0.008225352 0.045915395 -0.030576073 -0.05448602 -0.08642131 -0.003939657 -0.05393353 -0.031016957
意味着 0.08290921 -0.07820582 -0.061199512 -0.051048514 -0.06629723 -0.08830476 -0.007768865 0.096890695 0.077561855 -0.053067967
这 -0.08055677 -0.023827491 -0.09131799 -0.04983301 -0.059834328 0.030451037 -0.073339194 0.013727325 0.020729499 0.052450627
？ -0.019562762 -0.09891869 0.053258102 -0.05832795 0.048591886 0.019095184 0.09044671 0.016864322 -0.019960485 0.06459698
吗 -0.069568925 -0.08565639 0.039518908 -0.024727046 -0.042114932 -0.019312754 -0.0958033 0.0046591377 -0.013161453 -0.030233612
新闻 0.026206566 0.045693137 0.0651618 -0.07832485 -0.05034085 -0.08776211 -0.086583495 -0.03596766 -0.015144685 -0.08284694
淀粉 -0.05330754 -0.022614414 0.06467496 0.016697157 0.08318603 -0.08324978 -0.043650728 -0.006850923 0.08600595 0.010740037
蔗糖 0.015733035 0.0119161485 0.03091349 -0.09311321 0.03236653 0.054896455 0.05547336 0.04588525 -0.08341338 -0.040841974
生产 0.08496921 -0.006904084 -0.09292424 0.0488643 -0.06092109 0.06674109 0.056314528 -0.049133204 0.02346085 0.053610105
二氧化碳 -0.0354903 -0.01629909 0.09309133 0.09176148 -0.09410136 0.07566249 0.10101513 -0.027581956 0.022563946 -0.028073777
记得 0.08716141 -0.0036614616 0.057565875 0.09322797 0.040589765 -0.0712602 -0.017078692 0.01083634 0.018780135 0.029148187
探索 0.09632926 0.043314334 0.10061912 -0.08499941 -0.058126967 0.019855324 0.039585788 -0.008228537 -0.071144246 -0.03284245
星际 -0.08474907 0.09359634 0.038332604 -0.07786907 0.031615324 0.041741595 -0.05426818 -0.057829555 0.009018397 0.090072
飞船 -0.095355496 -0.0010180519 -0.06730964 -0.008566469 0.03014544 -0.050527386 -0.025045471 0.008264039 -0.065700546 0.07275843
载人 0.045068134 -0.08718969 -0.020154314 0.03266737 -0.083951205 -0.07131555 -0.08253937 -0.054018226 0.08642738 0.070424475
支持系统 0.029663427 -0.087004595 0.05834014 0.0471448 0.0007903696 -0.08869304 -0.016470473 0.0029571368 -0.07960002 0.024914501
生态 0.005833047 -0.07201644 -0.08116645 0.06192571 -0.08417699 -0.055939812 0.05812324 -0.0032887582 -0.032713704 -0.052170947
具备 -0.011506131 0.05140741 -0.058145586 -0.048201453 -0.04981112 -0.047419135 -0.07796814 -0.09677097 0.07388188 0.07985206
一艘 -0.041925453 -0.09450403 -0.017094072 -0.035619173 0.09054615 0.029575849 -0.057312697 -0.03235851 -0.10178333 0.018781403
起 -0.03957918 -0.028507866 0.053041317 0.07734303 0.04362146 -0.06840794 0.06890326 -0.09547725 -0.0717754 -0.08029217
组装 -0.02123442 0.0032772985 -0.036241878 0.019976009 0.09131034 0.06686384 -0.007367115 0.0925544 0.012720305 -0.020507382
准备 -0.064720474 0.06375164 -0.089266784 -0.017751299 0.07662009 -0.025702795 0.018418487 -0.07208001 0.04769053 0.073340036
计划 -0.09223343 -0.0336398 0.08015554 0.030528972 -0.00013862707 0.0031327168 -0.09683243 0.100622684 -0.02184888 -0.049171332
南天门 0.02876467 0.009306838 -0.058046658 0.059232846 -0.02528332 -0.062092196 0.07454486 0.06575922 0.08657577 0.011511497
1 0.005884114 -0.080220744 0.047260962 0.09479308 -0.0072158845 -0.017876927 -0.036218096 -0.004088289 -0.07788434 0.056724347
： 0.016135287 0.09193163 -0.06316998 -0.049711034 -0.062736295 -0.07315283 0.029555926 0.04984444 0.011897104 0.03504928
瞎猜 -0.0930867 -0.01166577 -0.07659525 0.030596174 -0.027374791 0.08885627 -0.03209721 0.06948306 0.039704747 0.01342525
不负责任 0.00087023794 0.08121936 0.02477217 0.08344333 0.03290111 0.054479565 0.053244997 -0.07502887 -0.059600387 0.01197472
Aka 0.0034016655 0.020018395 0.011845336 0.07768584 -0.044571456 0.003183964 0.073050864 0.023954565 0.040454734 0.042263795
预测 -0.011576014 -0.08424077 0.031903148 -0.087741554 -0.026906816 -0.09396576 -0.0019201846 -0.07717958 0.07214426 -0.049687937
个人 0.10046404 -0.09136754 -0.041798256 0.020915328 -0.0305476 0.014459994 -0.03409698 -0.00793967 -0.059327245 -0.09900602
我 0.06443648 0.002400553 0.0666363 -0.07325371 0.036495782 -0.099296056 0.07945172 0.060849003 -0.06340938 0.0817229
以下 -0.054764096 -0.0869314 0.016143925 0.03258258 -0.08136863 -0.08962956 0.09419442 0.017278355 0.007043717 0.024514081
注意 -0.034444813 0.016762162 0.020345263 0.09871733 -0.05643754 0.022570806 0.06474055 -0.066190116 -0.090760596 0.08623978
